Language model created by QuickLM on Fri Apr  6 18:53:11 EDT 2018
Copyright (c) 1996-2010 Carnegie Mellon University and Alexander I. Rudnicky

The model is in standard ARPA format, designed by Doug Paul while he was at MITRE.

The code that was used to produce this language model is available in Open Source.
Please visit http://www.speech.cs.cmu.edu/tools/ for more information

The (fixed) discount mass is 0.5. The backoffs are computed using the ratio method.
This model based on a corpus of 19 sentences and 35 words

\data\
ngram 1=35
ngram 2=57
ngram 3=56

\1-grams:
-1.0223 </s> -0.3010
-1.0223 <s> -0.2430
-2.3010 آخری -0.2923
-2.0000 آن -0.2833
-2.3010 بتاو -0.2577
-2.3010 بعد -0.2900
-2.3010 بند -0.2833
-2.3010 تھوڑی -0.2989
-2.3010 جگا -0.2900
-2.3010 دیر -0.2989
-2.3010 راستے -0.2967
-2.0000 رھا -0.2900
-2.3010 ساءیلنٹ -0.2833
-2.0000 عابد -0.2967
-2.0000 لوکیشن -0.2945
-2.3010 موباءل -0.2989
-2.3010 میری -0.2967
-1.6990 میسج -0.2742
-2.3010 میپ -0.2989
-2.0000 میں -0.2856
-2.0000 نیٹ -0.2945
-2.3010 چاھتا -0.2900
-2.3010 ڈراءیو -0.2967
-2.3010 ڈراءیونگ -0.2967
-2.3010 کا -0.2989
-1.6021 کال -0.2742
-2.0000 کر -0.2967
-2.0000 کرنا -0.2553
-1.3979 کرو -0.2577
-2.0000 کریں -0.2577
-2.0000 کس -0.2967
-2.0000 کو -0.2810
-2.3010 کھولو -0.2577
-1.6021 ھوں -0.2577
-2.3010 ھے -0.2577

\2-grams:
-1.5798 <s> آخری 0.0000
-1.5798 <s> تھوڑی 0.0000
-1.5798 <s> راستے 0.0000
-1.2788 <s> عابد 0.0000
-1.5798 <s> لوکیشن -0.1761
-1.5798 <s> موباءل 0.0000
-1.5798 <s> میری 0.0000
-1.2788 <s> میسج -0.0969
-1.5798 <s> میپ 0.0000
-1.5798 <s> میں -0.1761
-1.2788 <s> نیٹ 0.0000
-1.5798 <s> ڈراءیو 0.0000
-1.5798 <s> ڈراءیونگ 0.0000
-1.1027 <s> کال 0.0000
-0.3010 آخری میسج -0.2430
-0.3010 آن کرو 0.0000
-0.3010 بتاو </s> -0.3010
-0.3010 بعد کال -0.2041
-0.3010 بند کرو 0.0000
-0.3010 تھوڑی دیر 0.0000
-0.3010 جگا ھوں 0.0000
-0.3010 دیر بعد 0.0000
-0.3010 راستے میں -0.1761
-0.3010 رھا ھوں 0.0000
-0.3010 ساءیلنٹ کرو 0.0000
-0.3010 عابد کو 0.0000
-0.6021 لوکیشن آن 0.0000
-0.6021 لوکیشن بتاو 0.0000
-0.3010 موباءل ساءیلنٹ 0.0000
-0.3010 میری لوکیشن -0.1761
-0.6021 میسج کرو 0.0000
-0.9031 میسج کریں 0.0000
-0.9031 میسج کس -0.1761
-0.3010 میپ کھولو 0.0000
-0.6021 میں کس -0.1761
-0.6021 میں ھوں 0.0000
-0.6021 نیٹ آن 0.0000
-0.6021 نیٹ بند 0.0000
-0.3010 چاھتا ھوں 0.0000
-0.3010 ڈراءیو کر 0.0000
-0.3010 ڈراءیونگ کر 0.0000
-0.3010 کا ھے 0.0000
-0.6990 کال کرنا 0.0000
-0.6990 کال کرو 0.0000
-1.0000 کال کریں 0.0000
-0.3010 کر رھا 0.0000
-0.6021 کرنا </s> -0.3010
-0.6021 کرنا چاھتا 0.0000
-0.3010 کرو </s> -0.3010
-0.3010 کریں </s> -0.3010
-0.6021 کس جگا 0.0000
-0.6021 کس کا 0.0000
-0.6021 کو میسج -0.1761
-0.6021 کو کال -0.2041
-0.3010 کھولو </s> -0.3010
-0.3010 ھوں </s> -0.3010
-0.3010 ھے </s> -0.3010

\3-grams:
-0.3010 <s> آخری میسج
-0.3010 <s> تھوڑی دیر
-0.3010 <s> راستے میں
-0.3010 <s> عابد کو
-0.3010 <s> لوکیشن آن
-0.3010 <s> موباءل ساءیلنٹ
-0.3010 <s> میری لوکیشن
-0.6021 <s> میسج کرو
-0.6021 <s> میسج کریں
-0.3010 <s> میپ کھولو
-0.3010 <s> میں کس
-0.6021 <s> نیٹ آن
-0.6021 <s> نیٹ بند
-0.3010 <s> ڈراءیو کر
-0.3010 <s> ڈراءیونگ کر
-0.7782 <s> کال کرنا
-0.7782 <s> کال کرو
-0.7782 <s> کال کریں
-0.3010 آخری میسج کس
-0.3010 آن کرو </s>
-0.3010 بعد کال کرنا
-0.3010 بند کرو </s>
-0.3010 تھوڑی دیر بعد
-0.3010 جگا ھوں </s>
-0.3010 دیر بعد کال
-0.3010 راستے میں ھوں
-0.3010 رھا ھوں </s>
-0.3010 ساءیلنٹ کرو </s>
-0.6021 عابد کو میسج
-0.6021 عابد کو کال
-0.3010 لوکیشن آن کرو
-0.3010 لوکیشن بتاو </s>
-0.3010 موباءل ساءیلنٹ کرو
-0.3010 میری لوکیشن بتاو
-0.3010 میسج کرو </s>
-0.3010 میسج کریں </s>
-0.3010 میسج کس کا
-0.3010 میپ کھولو </s>
-0.3010 میں کس جگا
-0.3010 میں ھوں </s>
-0.3010 نیٹ آن کرو
-0.3010 نیٹ بند کرو
-0.3010 چاھتا ھوں </s>
-0.3010 ڈراءیو کر رھا
-0.3010 ڈراءیونگ کر رھا
-0.3010 کا ھے </s>
-0.6021 کال کرنا </s>
-0.6021 کال کرنا چاھتا
-0.3010 کال کرو </s>
-0.3010 کال کریں </s>
-0.3010 کر رھا ھوں
-0.3010 کرنا چاھتا ھوں
-0.3010 کس جگا ھوں
-0.3010 کس کا ھے
-0.3010 کو میسج کرو
-0.3010 کو کال کرو

\end\
