Language model created by QuickLM on Wed May  9 12:58:42 EDT 2018
Copyright (c) 1996-2010 Carnegie Mellon University and Alexander I. Rudnicky

The model is in standard ARPA format, designed by Doug Paul while he was at MITRE.

The code that was used to produce this language model is available in Open Source.
Please visit http://www.speech.cs.cmu.edu/tools/ for more information

The (fixed) discount mass is 0.5. The backoffs are computed using the ratio method.
This model based on a corpus of 119 sentences and 233 words

\data\
ngram 1=233
ngram 2=456
ngram 3=371

\1-grams:
-1.0137 </s> -0.3010
-1.0137 <s> -0.2440
-2.7882 آ -0.2996
-3.0892 آؤں -0.2993
-3.0892 آتا -0.2975
-2.7882 آتے -0.3000
-3.0892 آخری -0.2989
-3.0892 آصف -0.2568
-3.0892 آف -0.2568
-3.0892 آمنہ -0.2568
-2.7882 آن -0.2505
-2.4871 آنا -0.2505
-3.0892 آنلاءن -0.2985
-3.0892 آنم -0.2568
-3.0892 آٹھ -0.2568
-2.2441 ابھی -0.2978
-2.7882 اس -0.2996
-3.0892 اسلام -0.3007
-3.0892 اشارح -0.2996
-3.0892 الحمداللہ -0.2568
-2.3902 اور -0.2989
-3.0892 اوپن -0.2568
-3.0892 اپنا -0.3000
-3.0892 ایمیل -0.2568
-3.0892 ایٹ -0.2568
-2.7882 ایک -0.2560
-2.7882 بات -0.2989
-3.0892 باہر -0.3000
-2.6121 بتا -0.2996
-3.0892 بتاؤ -0.2568
-3.0892 بس -0.3007
-3.0892 بلوٹوتھ -0.2568
-3.0892 بنا -0.2568
-3.0892 بند -0.2568
-3.0892 بہت -0.2953
-3.0892 بیلنس -0.2993
-3.0892 بیٹری -0.3000
-2.7882 تم -0.2560
-3.0892 تمھارا -0.2568
-3.0892 تمھارے -0.2568
-3.0892 تمہیں -0.2568
-2.7882 تو -0.2985
-2.3110 تک -0.2971
-3.0892 تھا -0.2568
-3.0892 تھری -0.2568
-3.0892 تھوڑا -0.3007
-2.6121 تھوڑی -0.2943
-3.0892 تین -0.2568
-2.7882 جاءیں -0.3003
-2.7882 جاؤ -0.2560
-2.7882 جاؤں -0.2993
-3.0892 جانا -0.2953
-3.0892 جانے -0.3003
-3.0892 جناب -0.3000
-3.0892 جو -0.3007
-3.0892 جگہ -0.2568
-3.0892 حال -0.3007
-3.0892 خاص -0.2993
-3.0892 خبر -0.2953
-3.0892 ختم -0.2985
-3.0892 دس -0.3000
-2.4871 دو -0.2528
-3.0892 دوپہر -0.3000
-3.0892 دوں -0.2993
-2.6121 دیر -0.2964
-3.0892 دینا -0.2568
-3.0892 دیکھاؤ -0.2568
-3.0892 رءیس -0.2568
-2.7882 رات -0.2989
-3.0892 راستہ -0.2568
-3.0892 راستے -0.2985
-3.0892 رک -0.3003
-3.0892 رکو -0.3003
-2.7882 رہا -0.2975
-2.7882 رہے -0.2978
-3.0892 زبردست -0.3007
-3.0892 زیرو -0.2568
-3.0892 زین -0.2568
-3.0892 سا -0.3000
-3.0892 سات -0.2568
-2.6121 سامان -0.2993
-3.0892 سبغہ -0.2568
-3.0892 سلام -0.2568
-3.0892 سمبڑیال -0.2568
-3.0892 سناؤ -0.3007
-3.0892 سوناؤ -0.2568
-3.0892 سکتا -0.3003
-3.0892 سکندر -0.2568
-3.0892 سہرش -0.2568
-3.0892 سیالکوٹ -0.2568
-3.0892 سیون -0.2568
-3.0892 سیٹنگ -0.2568
-3.0892 سیکس -0.2568
-2.6121 سے -0.2996
-3.0892 شام -0.3003
-3.0892 شاکرہ -0.2568
-3.0892 صامیہ -0.2568
-3.0892 صبح -0.2989
-3.0892 صفر -0.2568
-3.0892 ضیاء -0.2568
-3.0892 طلحہ -0.2568
-3.0892 عابد -0.2568
-3.0892 عدنان -0.2568
-2.7882 عزیر -0.2560
-3.0892 علیکم -0.2568
-3.0892 فاءیو -0.2568
-3.0892 فروہ -0.2568
-3.0892 فور -0.2568
-3.0892 فہد -0.2568
-3.0892 لانا -0.2953
-2.7882 لاہور -0.2564
-3.0892 لوکیشن -0.2568
-3.0892 لگ -0.3003
-2.7882 لگا -0.2975
-3.0892 لیٹ -0.2975
-3.0892 لیے -0.3007
-2.6121 لے -0.2957
-3.0892 ماجد -0.2568
-3.0892 ماہم -0.2568
-3.0892 مصروف -0.3007
-3.0892 ملاؤ -0.2568
-3.0892 ملیہا -0.2568
-2.7882 منٹ -0.2996
-3.0892 منگوانا -0.2953
-2.7882 موباءل -0.2540
-3.0892 مومن -0.2568
-3.0892 مومنہ -0.2568
-3.0892 مہوش -0.2568
-3.0892 میرا -0.3000
-2.3110 میسج -0.2946
-3.0892 میل -0.2568
-3.0892 میپ -0.2568
-2.2441 میں -0.2932
-3.0892 ناءن -0.2568
-3.0892 نارول -0.2568
-3.0892 ناشیہ -0.2568
-3.0892 نفیسہ -0.2568
-3.0892 نمبر -0.2568
-3.0892 نو -0.2568
-3.0892 نکل -0.3003
-3.0892 نکلنا -0.2953
-3.0892 نکلنے -0.3003
-2.3902 نہیں -0.2516
-2.6121 نیٹ -0.2996
-2.7882 نے -0.3000
-3.0892 والا -0.2975
-3.0892 واپس -0.3003
-3.0892 وایفای -0.2568
-3.0892 وجہ -0.3000
-3.0892 وزیرآباد -0.2568
-3.0892 وعلیکم -0.3007
-2.7882 وقت -0.2560
-3.0892 ون -0.2568
-3.0892 وٹسآیپ -0.2996
-2.6121 ویسے -0.2982
-2.7882 ٹریفک -0.2982
-3.0892 ٹو -0.2568
-3.0892 ٹھاک -0.3003
-3.0892 ٹھیک -0.3007
-3.0892 پانچ -0.2568
-3.0892 پتہ -0.2953
-2.4871 پر -0.2943
-3.0892 پرسوں -0.3003
-3.0892 پندرہ -0.3003
-3.0892 پٹرول -0.3007
-3.0892 پڑھ -0.2975
-3.0892 پھر -0.3003
-3.0892 پھنسے -0.3000
-3.0892 پہلے -0.3003
-2.6121 پہنچ -0.2968
-3.0892 پہنچنے -0.3007
-3.0892 پہنچے -0.2985
-3.0892 پیڈ -0.2568
-3.0892 چار -0.2568
-3.0892 چال -0.2953
-2.7882 چاہیے -0.2975
-3.0892 چلا -0.3003
-3.0892 چلاؤ -0.2993
-3.0892 چھ -0.2568
-3.0892 چیز -0.3003
-3.0892 ڈاءل -0.2568
-3.0892 ڈرایو -0.2975
-3.0892 ڈسکہ -0.2568
-3.0892 ڈلوا -0.2975
-2.7882 کا -0.2950
-2.6121 کال -0.2560
-3.0892 کام -0.2996
-2.7882 کب -0.2971
-3.0892 کتنی -0.3000
-3.0892 کدھر -0.2985
-3.0892 کدہر -0.3007
-2.0892 کر -0.2939
-3.0892 کرتا -0.2568
-3.0892 کرنا -0.3000
-3.0892 کرو -0.2568
-3.0892 کس -0.3003
-3.0892 کل -0.3000
-2.7882 کو -0.2982
-2.7882 کوءی -0.3003
-2.7882 کون -0.3000
-3.0892 کونسی -0.2568
-2.7882 کچھ -0.3000
-3.0892 کھانے -0.2985
-3.0892 کھولو -0.2568
-3.0892 کھڑا -0.2975
-2.7882 کہاں -0.2993
-3.0892 کی -0.3007
-2.3902 کیا -0.2961
-3.0892 کیم -0.2568
-3.0892 کیمرہ -0.2568
-3.0892 کیوں -0.2985
-3.0892 کے -0.3007
-2.3902 گا -0.2560
-2.7882 گاڑی -0.3003
-3.0892 گجرات -0.2568
-2.7882 گجرانوالہ -0.2564
-3.0892 گھر -0.3003
-3.0892 گیا -0.2953
-2.7882 گے -0.2540
-3.0892 ہاں -0.2568
-2.7882 ہم -0.2560
-3.0892 ہمارا -0.2568
-3.0892 ہمارے -0.2568
-3.0892 ہمیں -0.2568
-2.2441 ہو -0.2512
-3.0892 ہوتی -0.2953
-3.0892 ہونے -0.3007
-2.0892 ہوں -0.2512
-2.6121 ہوے -0.2982
-2.7882 ہیں -0.2982
-1.8851 ہے -0.2465
-2.6121 یا -0.2985
-3.0892 ﻿ماشاءاللہ -0.2568

\2-grams:
-2.3766 <s> آخری 0.0000
-2.3766 <s> آصف 0.0000
-2.3766 <s> آف 0.0000
-2.3766 <s> آمنہ 0.0000
-2.3766 <s> آن -0.1761
-2.3766 <s> آنم 0.0000
-2.3766 <s> آٹھ 0.0000
-1.7745 <s> ابھی -0.1549
-2.3766 <s> اسلام 0.0000
-2.3766 <s> الحمداللہ 0.0000
-2.3766 <s> اور -0.2553
-2.3766 <s> اوپن 0.0000
-2.3766 <s> ایمیل 0.0000
-2.3766 <s> ایٹ 0.0000
-2.3766 <s> ایک -0.1761
-2.3766 <s> بتاؤ 0.0000
-2.3766 <s> بلوٹوتھ 0.0000
-2.3766 <s> بند 0.0000
-2.3766 <s> بیٹری 0.0000
-2.0755 <s> تم 0.0000
-2.3766 <s> تمھارا 0.0000
-2.3766 <s> تمھارے 0.0000
-2.3766 <s> تمہیں 0.0000
-2.3766 <s> تھری 0.0000
-2.3766 <s> تھوڑا 0.0000
-2.3766 <s> تین 0.0000
-2.3766 <s> جگہ 0.0000
-2.3766 <s> دس 0.0000
-2.3766 <s> دو -0.2430
-2.3766 <s> دوپہر 0.0000
-2.3766 <s> دیکھاؤ 0.0000
-2.3766 <s> رءیس 0.0000
-2.3766 <s> راستہ 0.0000
-2.3766 <s> رک 0.0000
-2.3766 <s> رکو 0.0000
-2.3766 <s> زبردست 0.0000
-2.3766 <s> زیرو 0.0000
-2.3766 <s> زین 0.0000
-2.3766 <s> سات 0.0000
-2.3766 <s> سبغہ 0.0000
-2.3766 <s> سمبڑیال 0.0000
-2.3766 <s> سکندر 0.0000
-2.3766 <s> سہرش 0.0000
-2.3766 <s> سیالکوٹ 0.0000
-2.3766 <s> سیون 0.0000
-2.3766 <s> سیٹنگ 0.0000
-2.3766 <s> سیکس 0.0000
-2.3766 <s> شاکرہ 0.0000
-2.3766 <s> صامیہ 0.0000
-2.3766 <s> صفر 0.0000
-2.3766 <s> ضیاء 0.0000
-2.3766 <s> طلحہ 0.0000
-2.3766 <s> عابد 0.0000
-2.3766 <s> عدنان 0.0000
-2.3766 <s> عزیر -0.1761
-2.3766 <s> فاءیو 0.0000
-2.3766 <s> فروہ 0.0000
-2.3766 <s> فور 0.0000
-2.3766 <s> فہد 0.0000
-2.3766 <s> لاہور -0.1761
-2.3766 <s> لوکیشن 0.0000
-2.3766 <s> ماجد 0.0000
-2.3766 <s> ماہم 0.0000
-2.3766 <s> ملاؤ 0.0000
-2.3766 <s> ملیہا 0.0000
-2.0755 <s> موباءل 0.0000
-2.3766 <s> مومن 0.0000
-2.3766 <s> مومنہ 0.0000
-2.3766 <s> مہوش 0.0000
-2.3766 <s> میل 0.0000
-2.3766 <s> میپ 0.0000
-2.0755 <s> میں -0.2341
-2.3766 <s> ناءن 0.0000
-2.3766 <s> نارول 0.0000
-2.3766 <s> ناشیہ 0.0000
-2.3766 <s> نفیسہ 0.0000
-2.3766 <s> نمبر 0.0000
-2.3766 <s> نو 0.0000
-2.3766 <s> نہیں -0.1461
-2.3766 <s> وایفای 0.0000
-2.3766 <s> وزیرآباد 0.0000
-2.3766 <s> وعلیکم 0.0000
-2.3766 <s> وقت -0.1761
-2.3766 <s> ون 0.0000
-2.3766 <s> ٹو 0.0000
-2.3766 <s> ٹھیک 0.0000
-2.3766 <s> پانچ 0.0000
-2.3766 <s> پہلے 0.0000
-2.3766 <s> پہنچ -0.1249
-2.3766 <s> پیڈ 0.0000
-2.3766 <s> چار 0.0000
-2.3766 <s> چھ 0.0000
-2.3766 <s> ڈاءل 0.0000
-2.3766 <s> ڈسکہ 0.0000
-2.0755 <s> کال -0.1249
-2.3766 <s> کوءی -0.1761
-2.3766 <s> کونسی 0.0000
-2.3766 <s> کھولو 0.0000
-2.0755 <s> کیا -0.2041
-2.3766 <s> کیم 0.0000
-2.3766 <s> کیمرہ 0.0000
-2.3766 <s> کیوں 0.0000
-2.3766 <s> گجرات 0.0000
-2.3766 <s> گجرانوالہ -0.1761
-2.3766 <s> ہاں 0.0000
-2.0755 <s> ہم 0.0000
-2.3766 <s> ہمارا 0.0000
-2.3766 <s> ہمارے 0.0000
-2.3766 <s> ہمیں 0.0000
-2.3766 <s> ﻿ماشاءاللہ 0.0000
-0.6021 آ جاءیں 0.0000
-0.6021 آ جاؤں 0.0000
-0.3010 آؤں گا -0.0792
-0.3010 آتا ہوں -0.2304
-0.3010 آتے ہوے -0.1249
-0.3010 آخری میسج -0.2632
-0.3010 آصف </s> -0.3010
-0.3010 آف </s> -0.3010
-0.3010 آمنہ </s> -0.3010
-0.6021 آن </s> -0.3010
-0.6021 آن ہے -0.2872
-0.9031 آنا </s> -0.3010
-0.4260 آنا ہے -0.1938
-0.3010 آنلاءن ہو -0.2688
-0.3010 آنم </s> -0.3010
-0.3010 آٹھ </s> -0.3010
-1.1461 ابھی بات -0.1761
-1.1461 ابھی تو -0.1761
-1.1461 ابھی میرا 0.0000
-1.1461 ابھی نکل 0.0000
-1.1461 ابھی نکلنے 0.0000
-1.1461 ابھی کام 0.0000
-1.1461 ابھی کدہر 0.0000
-0.6021 اس وقت -0.1761
-0.6021 اس کو -0.1761
-0.3010 اسلام علیکم 0.0000
-0.3010 اشارح پر -0.2430
-0.3010 الحمداللہ </s> -0.3010
-1.0000 اور سناؤ 0.0000
-1.0000 اور کتنی 0.0000
-1.0000 اور کل 0.0000
-1.0000 اور کچھ -0.1761
-1.0000 اور کھانے 0.0000
-0.3010 اوپن </s> -0.3010
-0.3010 اپنا نیٹ -0.2218
-0.3010 ایمیل </s> -0.3010
-0.3010 ایٹ </s> -0.3010
-0.6021 ایک </s> -0.3010
-0.6021 ایک منٹ -0.1761
-0.6021 بات نہیں -0.2553
-0.6021 بات ہوتی 0.0000
-0.3010 باہر سے -0.2218
-0.3010 بتا دو -0.0969
-0.3010 بتاؤ </s> -0.3010
-0.3010 بس پہنچنے 0.0000
-0.3010 بلوٹوتھ </s> -0.3010
-0.3010 بنا </s> -0.3010
-0.3010 بند </s> -0.3010
-0.3010 بہت ہے -0.2872
-0.3010 بیلنس نہیں -0.2553
-0.3010 بیٹری تھوڑی -0.2218
-0.6021 تم </s> -0.3010
-0.6021 تم نے -0.1761
-0.3010 تمھارا </s> -0.3010
-0.3010 تمھارے </s> -0.3010
-0.3010 تمہیں </s> -0.3010
-0.6021 تو راستے 0.0000
-0.6021 تو میسج -0.2218
-1.0792 تک آ -0.1761
-1.0792 تک آتا 0.0000
-0.7782 تک آنا -0.0969
-1.0792 تک واپس 0.0000
-1.0792 تک پہنچ -0.2218
-0.3010 تھا </s> -0.3010
-0.3010 تھری </s> -0.3010
-0.3010 تھوڑا مصروف 0.0000
-0.4771 تھوڑی دیر 0.0000
-0.7782 تھوڑی ہے -0.2872
-0.3010 تین </s> -0.3010
-0.3010 جاءیں گے 0.0000
-0.6021 جاؤ </s> -0.3010
-0.6021 جاؤ ٹریفک -0.1761
-0.3010 جاؤں گا -0.0792
-0.3010 جانا ہے -0.2872
-0.3010 جانے لگا 0.0000
-0.3010 جناب تھوڑی -0.1249
-0.3010 جو لانا 0.0000
-0.3010 جگہ </s> -0.3010
-0.3010 حال چال 0.0000
-0.3010 خاص نہیں -0.1461
-0.3010 خبر ہے -0.1938
-0.3010 ختم ہو -0.2688
-0.3010 دس سے -0.2218
-0.9031 دو </s> -0.3010
-0.9031 دو ابھی -0.2688
-0.9031 دو باہر 0.0000
-0.9031 دو کون -0.1761
-0.3010 دوپہر یا -0.2218
-0.3010 دوں گا -0.0792
-0.4771 دیر تک -0.1761
-0.7782 دیر میں -0.2688
-0.3010 دینا </s> -0.3010
-0.3010 دیکھاؤ </s> -0.3010
-0.3010 رءیس </s> -0.3010
-0.3010 رات تک -0.2218
-0.3010 راستہ </s> -0.3010
-0.3010 راستے میں -0.2688
-0.3010 رک جاؤ -0.1761
-0.3010 رکو ایک -0.1761
-0.3010 رہا ہوں -0.2304
-0.6021 رہے ہو -0.2688
-0.6021 رہے ہیں -0.1761
-0.3010 زبردست جناب 0.0000
-0.3010 زیرو </s> -0.3010
-0.3010 زین </s> -0.3010
-0.3010 سا سامان -0.1249
-0.3010 سات </s> -0.3010
-0.4771 سامان لے -0.1249
-0.7782 سامان کا -0.1761
-0.3010 سبغہ </s> -0.3010
-0.3010 سلام </s> -0.3010
-0.3010 سمبڑیال </s> -0.3010
-0.3010 سناؤ کدھر 0.0000
-0.3010 سوناؤ </s> -0.3010
-0.3010 سکتا گاڑی -0.1761
-0.3010 سکندر </s> -0.3010
-0.3010 سہرش </s> -0.3010
-0.3010 سیالکوٹ </s> -0.3010
-0.3010 سیون </s> -0.3010
-0.3010 سیٹنگ </s> -0.3010
-0.3010 سیکس </s> -0.3010
-0.7782 سے لیٹ 0.0000
-0.7782 سے پندرہ 0.0000
-0.7782 سے کچھ -0.1761
-0.3010 شام کو -0.1761
-0.3010 شاکرہ </s> -0.3010
-0.3010 صامیہ </s> -0.3010
-0.3010 صبح تک -0.2632
-0.3010 صفر </s> -0.3010
-0.3010 ضیاء </s> -0.3010
-0.3010 طلحہ </s> -0.3010
-0.3010 عابد </s> -0.3010
-0.3010 عدنان </s> -0.3010
-0.6021 عزیر </s> -0.3010
-0.6021 عزیر نے -0.1761
-0.3010 علیکم </s> -0.3010
-0.3010 فاءیو </s> -0.3010
-0.3010 فروہ </s> -0.3010
-0.3010 فور </s> -0.3010
-0.3010 فہد </s> -0.3010
-0.3010 لانا ہے -0.1938
-0.6021 لاہور </s> -0.3010
-0.6021 لاہور جانا 0.0000
-0.3010 لوکیشن </s> -0.3010
-0.3010 لگ جاءیں 0.0000
-0.3010 لگا ہوں -0.2553
-0.3010 لیٹ ہوں -0.2788
-0.3010 لیے نکلنا 0.0000
-0.7782 لے آؤں 0.0000
-0.7782 لے آنا -0.2430
-0.7782 لے کر -0.2788
-0.3010 ماجد </s> -0.3010
-0.3010 ماہم </s> -0.3010
-0.3010 مصروف ہونے 0.0000
-0.3010 ملاؤ </s> -0.3010
-0.3010 ملیہا </s> -0.3010
-0.6021 منٹ تھوڑی -0.1249
-0.6021 منٹ لگ 0.0000
-0.3010 منگوانا ہے -0.2872
-0.6021 موباءل </s> -0.3010
-0.6021 موباءل میں -0.2688
-0.3010 مومن </s> -0.3010
-0.3010 مومنہ </s> -0.3010
-0.3010 مہوش </s> -0.3010
-0.3010 میرا نیٹ -0.2218
-1.0792 میسج پڑھ 0.0000
-0.7782 میسج کر -0.2553
-1.0792 میسج کرنا 0.0000
-1.0792 میسج کس 0.0000
-1.0792 میسج کیا -0.2553
-0.3010 میل </s> -0.3010
-0.3010 میپ </s> -0.3010
-1.1461 میں بس 0.0000
-1.1461 میں بیلنس 0.0000
-1.1461 میں جانے 0.0000
-1.1461 میں پھنسے 0.0000
-1.1461 میں کال -0.2218
-1.1461 میں کیا -0.2553
-1.1461 میں ہوں -0.2788
-0.3010 ناءن </s> -0.3010
-0.3010 نارول </s> -0.3010
-0.3010 ناشیہ </s> -0.3010
-0.3010 نفیسہ </s> -0.3010
-0.3010 نمبر </s> -0.3010
-0.3010 نو </s> -0.3010
-0.3010 نکل رہے -0.1761
-0.3010 نکلنا ہے -0.1938
-0.3010 نکلنے لگا 0.0000
-0.5229 نہیں </s> -0.3010
-1.0000 نہیں ویسے -0.2218
-1.0000 نہیں کر -0.2788
-0.7782 نیٹ آن -0.1761
-0.7782 نیٹ ختم 0.0000
-0.7782 نیٹ چلاؤ 0.0000
-0.6021 نے اس -0.1761
-0.6021 نے گھر 0.0000
-0.3010 والا ہوں -0.2788
-0.3010 واپس آ -0.1761
-0.3010 وایفای </s> -0.3010
-0.3010 وجہ سے -0.2218
-0.3010 وزیرآباد </s> -0.3010
-0.3010 وعلیکم سلام 0.0000
-0.6021 وقت </s> -0.3010
-0.6021 وقت کہاں -0.1761
-0.3010 ون </s> -0.3010
-0.3010 وٹسآیپ پر -0.2430
-0.7782 ویسے سامان -0.2218
-0.7782 ویسے عزیر -0.1761
-0.7782 ویسے نیٹ -0.2218
-0.6021 ٹریفک بہت 0.0000
-0.6021 ٹریفک میں -0.2688
-0.3010 ٹو </s> -0.3010
-0.3010 ٹھاک کوءی -0.1761
-0.3010 ٹھیک ٹھاک 0.0000
-0.3010 پانچ </s> -0.3010
-0.3010 پتہ ہے -0.2872
-0.9031 پر آنلاءن 0.0000
-0.9031 پر کھڑا 0.0000
-0.9031 پر ہو -0.2688
-0.9031 پر ہوں -0.2788
-0.3010 پرسوں رات 0.0000
-0.3010 پندرہ منٹ -0.1761
-0.3010 پٹرول ڈلوا 0.0000
-0.3010 پڑھ کر -0.2788
-0.3010 پھر لاہور -0.1761
-0.3010 پھنسے ہوے -0.2218
-0.3010 پہلے گجرانوالہ -0.1761
-0.7782 پہنچ جاؤں 0.0000
-0.4771 پہنچ کر -0.2304
-0.3010 پہنچنے والا 0.0000
-0.3010 پہنچے ہو -0.2688
-0.3010 پیڈ </s> -0.3010
-0.3010 چار </s> -0.3010
-0.3010 چال ہے -0.2872
-0.6021 چاہیے بتا 0.0000
-0.6021 چاہیے ہو -0.2688
-0.3010 چلا رہا 0.0000
-0.3010 چلاؤ اور -0.2553
-0.3010 چھ </s> -0.3010
-0.3010 چیز چاہیے -0.1761
-0.3010 ڈاءل </s> -0.3010
-0.3010 ڈرایو کر -0.2788
-0.3010 ڈسکہ </s> -0.3010
-0.3010 ڈلوا کر -0.2553
-0.6021 کا پتہ 0.0000
-0.6021 کا ہے -0.2872
-0.7782 کال </s> -0.3010
-0.7782 کال کرتا 0.0000
-0.7782 کال کرو 0.0000
-0.3010 کام پر -0.2430
-0.6021 کب اور -0.2553
-0.6021 کب تک -0.2218
-0.3010 کتنی دیر -0.1249
-0.3010 کدھر ہو -0.2688
-0.3010 کدہر پہنچے 0.0000
-1.3010 کر آنا -0.0969
-1.3010 کر بات -0.1761
-1.3010 کر دوں 0.0000
-1.3010 کر دینا 0.0000
-1.3010 کر رہا 0.0000
-1.3010 کر رہے -0.1761
-1.3010 کر سوناؤ 0.0000
-1.3010 کر سکتا 0.0000
-1.0000 کر میسج -0.1761
-0.3010 کرتا </s> -0.3010
-0.3010 کرنا ویسے -0.2218
-0.3010 کرو </s> -0.3010
-0.3010 کس کا -0.1761
-0.3010 کل یا -0.2218
-0.6021 کو میسج -0.2632
-0.6021 کو کہاں -0.1761
-0.6021 کوءی خاص 0.0000
-0.6021 کوءی چیز 0.0000
-0.6021 کون سا 0.0000
-0.6021 کون کون -0.1761
-0.3010 کونسی </s> -0.3010
-0.6021 کچھ منگوانا 0.0000
-0.6021 کچھ چاہیے -0.1761
-0.3010 کھانے میں -0.2688
-0.3010 کھولو </s> -0.3010
-0.3010 کھڑا ہوں -0.2788
-0.6021 کہاں پر -0.2430
-0.6021 کہاں کے 0.0000
-0.3010 کی وجہ 0.0000
-1.0000 کیا بنا 0.0000
-1.0000 کیا تھا 0.0000
-1.0000 کیا حال 0.0000
-1.0000 کیا خبر 0.0000
-1.0000 کیا کر -0.2788
-0.3010 کیم </s> -0.3010
-0.3010 کیمرہ </s> -0.3010
-0.3010 کیوں ابھی -0.2688
-0.3010 کے لیے 0.0000
-0.3979 گا </s> -0.3010
-1.0000 گا تو -0.1761
-0.6021 گاڑی چلا 0.0000
-0.6021 گاڑی ڈرایو 0.0000
-0.3010 گجرات </s> -0.3010
-0.6021 گجرانوالہ </s> -0.3010
-0.6021 گجرانوالہ پھر 0.0000
-0.3010 گھر کب -0.1761
-0.3010 گیا ہے -0.2872
-0.6021 گے </s> -0.3010
-0.6021 گے ابھی -0.2688
-0.3010 ہاں </s> -0.3010
-0.6021 ہم </s> -0.3010
-0.6021 ہم ٹریفک -0.1761
-0.3010 ہمارا </s> -0.3010
-0.3010 ہمارے </s> -0.3010
-0.3010 ہمیں </s> -0.3010
-1.1461 ہو </s> -0.3010
-1.1461 ہو آتے 0.0000
-1.1461 ہو اس -0.1761
-1.1461 ہو جاؤ -0.1761
-1.1461 ہو کب -0.1761
-1.1461 ہو گا -0.2553
-1.1461 ہو گیا 0.0000
-0.3010 ہوتی ہے -0.1938
-0.3010 ہونے کی 0.0000
-0.8239 ہوں </s> -0.3010
-1.3010 ہوں آتے 0.0000
-1.3010 ہوں اپنا 0.0000
-1.3010 ہوں بتا 0.0000
-1.3010 ہوں رات 0.0000
-1.3010 ہوں صبح 0.0000
-1.3010 ہوں پہنچ -0.1249
-1.3010 ہوں گاڑی -0.1761
-0.7782 ہوے سامان -0.1249
-0.7782 ہوے لے -0.2218
-0.7782 ہوے ہیں -0.1761
-0.6021 ہیں اور -0.2553
-0.6021 ہیں بتا 0.0000
-0.6601 ہے </s> -0.3010
-1.5051 ہے اشارح 0.0000
-1.5051 ہے اور -0.2553
-1.5051 ہے جو 0.0000
-1.5051 ہے میسج -0.2632
-1.5051 ہے وٹسآیپ 0.0000
-1.5051 ہے ویسے -0.2218
-1.5051 ہے پٹرول 0.0000
-1.5051 ہے کیا -0.2553
-1.5051 ہے یا -0.2218
-0.7782 یا شام 0.0000
-0.7782 یا نہیں -0.1461
-0.7782 یا پرسوں 0.0000
-0.3010 ﻿ماشاءاللہ </s> -0.3010

\3-grams:
-0.3010 <s> آخری میسج
-0.3010 <s> آصف </s>
-0.3010 <s> آف </s>
-0.3010 <s> آمنہ </s>
-0.3010 <s> آن </s>
-0.3010 <s> آنم </s>
-0.3010 <s> آٹھ </s>
-0.9031 <s> ابھی تو
-0.9031 <s> ابھی میرا
-0.9031 <s> ابھی نکل
-0.9031 <s> ابھی نکلنے
-0.3010 <s> اسلام علیکم
-0.3010 <s> الحمداللہ </s>
-0.3010 <s> اور سناؤ
-0.3010 <s> اوپن </s>
-0.3010 <s> ایمیل </s>
-0.3010 <s> ایٹ </s>
-0.3010 <s> ایک </s>
-0.3010 <s> بتاؤ </s>
-0.3010 <s> بلوٹوتھ </s>
-0.3010 <s> بند </s>
-0.3010 <s> بیٹری تھوڑی
-0.6021 <s> تم </s>
-0.6021 <s> تم نے
-0.3010 <s> تمھارا </s>
-0.3010 <s> تمھارے </s>
-0.3010 <s> تمہیں </s>
-0.3010 <s> تھری </s>
-0.3010 <s> تھوڑا مصروف
-0.3010 <s> تین </s>
-0.3010 <s> جگہ </s>
-0.3010 <s> دس سے
-0.3010 <s> دو </s>
-0.3010 <s> دوپہر یا
-0.3010 <s> دیکھاؤ </s>
-0.3010 <s> رءیس </s>
-0.3010 <s> راستہ </s>
-0.3010 <s> رک جاؤ
-0.3010 <s> رکو ایک
-0.3010 <s> زبردست جناب
-0.3010 <s> زیرو </s>
-0.3010 <s> زین </s>
-0.3010 <s> سات </s>
-0.3010 <s> سبغہ </s>
-0.3010 <s> سمبڑیال </s>
-0.3010 <s> سکندر </s>
-0.3010 <s> سہرش </s>
-0.3010 <s> سیالکوٹ </s>
-0.3010 <s> سیون </s>
-0.3010 <s> سیٹنگ </s>
-0.3010 <s> سیکس </s>
-0.3010 <s> شاکرہ </s>
-0.3010 <s> صامیہ </s>
-0.3010 <s> صفر </s>
-0.3010 <s> ضیاء </s>
-0.3010 <s> طلحہ </s>
-0.3010 <s> عابد </s>
-0.3010 <s> عدنان </s>
-0.3010 <s> عزیر </s>
-0.3010 <s> فاءیو </s>
-0.3010 <s> فروہ </s>
-0.3010 <s> فور </s>
-0.3010 <s> فہد </s>
-0.3010 <s> لاہور </s>
-0.3010 <s> لوکیشن </s>
-0.3010 <s> ماجد </s>
-0.3010 <s> ماہم </s>
-0.3010 <s> ملاؤ </s>
-0.3010 <s> ملیہا </s>
-0.6021 <s> موباءل </s>
-0.6021 <s> موباءل میں
-0.3010 <s> مومن </s>
-0.3010 <s> مومنہ </s>
-0.3010 <s> مہوش </s>
-0.3010 <s> میل </s>
-0.3010 <s> میپ </s>
-0.6021 <s> میں بس
-0.6021 <s> میں جانے
-0.3010 <s> ناءن </s>
-0.3010 <s> نارول </s>
-0.3010 <s> ناشیہ </s>
-0.3010 <s> نفیسہ </s>
-0.3010 <s> نمبر </s>
-0.3010 <s> نو </s>
-0.3010 <s> نہیں </s>
-0.3010 <s> وایفای </s>
-0.3010 <s> وزیرآباد </s>
-0.3010 <s> وعلیکم سلام
-0.3010 <s> وقت </s>
-0.3010 <s> ون </s>
-0.3010 <s> ٹو </s>
-0.3010 <s> ٹھیک ٹھاک
-0.3010 <s> پانچ </s>
-0.3010 <s> پہلے گجرانوالہ
-0.3010 <s> پہنچ کر
-0.3010 <s> پیڈ </s>
-0.3010 <s> چار </s>
-0.3010 <s> چھ </s>
-0.3010 <s> ڈاءل </s>
-0.3010 <s> ڈسکہ </s>
-0.6021 <s> کال </s>
-0.6021 <s> کال کرو
-0.3010 <s> کوءی چیز
-0.3010 <s> کونسی </s>
-0.3010 <s> کھولو </s>
-0.6021 <s> کیا حال
-0.6021 <s> کیا کر
-0.3010 <s> کیم </s>
-0.3010 <s> کیمرہ </s>
-0.3010 <s> کیوں ابھی
-0.3010 <s> گجرات </s>
-0.3010 <s> گجرانوالہ </s>
-0.3010 <s> ہاں </s>
-0.6021 <s> ہم </s>
-0.6021 <s> ہم ٹریفک
-0.3010 <s> ہمارا </s>
-0.3010 <s> ہمارے </s>
-0.3010 <s> ہمیں </s>
-0.3010 <s> ﻿ماشاءاللہ </s>
-0.3010 آ جاءیں گے
-0.3010 آ جاؤں گا
-0.3010 آؤں گا </s>
-0.3010 آتا ہوں </s>
-0.6021 آتے ہوے سامان
-0.6021 آتے ہوے لے
-0.3010 آخری میسج کس
-0.3010 آن ہے وٹسآیپ
-0.3010 آنا ہے </s>
-0.3010 آنلاءن ہو جاؤ
-0.3010 ابھی بات نہیں
-0.3010 ابھی تو راستے
-0.3010 ابھی میرا نیٹ
-0.3010 ابھی نکل رہے
-0.3010 ابھی نکلنے لگا
-0.3010 ابھی کام پر
-0.3010 ابھی کدہر پہنچے
-0.3010 اس وقت کہاں
-0.3010 اس کو میسج
-0.3010 اسلام علیکم </s>
-0.3010 اشارح پر کھڑا
-0.3010 اور سناؤ کدھر
-0.3010 اور کتنی دیر
-0.3010 اور کل یا
-0.3010 اور کچھ چاہیے
-0.3010 اور کھانے میں
-0.3010 اپنا نیٹ چلاؤ
-0.3010 ایک منٹ تھوڑی
-0.3010 بات نہیں کر
-0.3010 بات ہوتی ہے
-0.3010 باہر سے کچھ
-0.7782 بتا دو ابھی
-0.7782 بتا دو باہر
-0.7782 بتا دو کون
-0.3010 بس پہنچنے والا
-0.3010 بہت ہے اشارح
-0.3010 بیلنس نہیں ویسے
-0.3010 بیٹری تھوڑی ہے
-0.3010 تم نے گھر
-0.3010 تو راستے میں
-0.3010 تو میسج کر
-0.3010 تک آ جاؤں
-0.3010 تک آتا ہوں
-0.3010 تک آنا ہے
-0.3010 تک واپس آ
-0.3010 تک پہنچ جاؤں
-0.3010 تھوڑا مصروف ہونے
-0.6021 تھوڑی دیر تک
-0.6021 تھوڑی دیر میں
-0.3010 تھوڑی ہے پٹرول
-0.6021 جاءیں گے </s>
-0.6021 جاءیں گے ابھی
-0.3010 جاؤ ٹریفک بہت
-0.3010 جاؤں گا </s>
-0.3010 جانا ہے اور
-0.3010 جانے لگا ہوں
-0.3010 جناب تھوڑی دیر
-0.3010 جو لانا ہے
-0.3010 حال چال ہے
-0.3010 خاص نہیں </s>
-0.3010 خبر ہے </s>
-0.3010 ختم ہو گیا
-0.3010 دس سے پندرہ
-0.3010 دو ابھی کام
-0.3010 دو باہر سے
-0.3010 دو کون کون
-0.3010 دوپہر یا شام
-0.3010 دوں گا </s>
-0.6021 دیر تک آتا
-0.6021 دیر تک آنا
-0.3010 دیر میں کال
-0.6021 رات تک واپس
-0.6021 رات تک پہنچ
-0.3010 راستے میں ہوں
-0.3010 رک جاؤ ٹریفک
-0.3010 رکو ایک منٹ
-0.3010 رہا ہوں </s>
-0.3010 رہے ہو اس
-0.3010 رہے ہیں بتا
-0.3010 زبردست جناب تھوڑی
-0.3010 سا سامان لے
-0.6021 سامان لے آنا
-0.6021 سامان لے کر
-0.3010 سامان کا پتہ
-0.3010 سناؤ کدھر ہو
-0.3010 سکتا گاڑی ڈرایو
-0.3010 سے لیٹ ہوں
-0.3010 سے پندرہ منٹ
-0.3010 سے کچھ منگوانا
-0.3010 شام کو کہاں
-0.3010 صبح تک آ
-0.3010 عزیر نے اس
-0.3010 لانا ہے </s>
-0.3010 لاہور جانا ہے
-0.3010 لگ جاءیں گے
-0.6021 لگا ہوں بتا
-0.6021 لگا ہوں رات
-0.3010 لیٹ ہوں صبح
-0.3010 لیے نکلنا ہے
-0.3010 لے آؤں گا
-0.3010 لے آنا </s>
-0.3010 لے کر آنا
-0.3010 مصروف ہونے کی
-0.3010 منٹ تھوڑی دیر
-0.3010 منٹ لگ جاءیں
-0.3010 منگوانا ہے یا
-0.3010 موباءل میں بیلنس
-0.3010 میرا نیٹ ختم
-0.3010 میسج پڑھ کر
-0.6021 میسج کر دوں
-0.6021 میسج کر دینا
-0.3010 میسج کرنا ویسے
-0.3010 میسج کس کا
-0.3010 میسج کیا تھا
-0.3010 میں بس پہنچنے
-0.3010 میں بیلنس نہیں
-0.3010 میں جانے لگا
-0.3010 میں پھنسے ہوے
-0.3010 میں کال کرتا
-0.3010 میں کیا بنا
-0.3010 میں ہوں گاڑی
-0.3010 نکل رہے ہیں
-0.3010 نکلنا ہے </s>
-0.3010 نکلنے لگا ہوں
-0.3010 نہیں ویسے نیٹ
-0.3010 نہیں کر سکتا
-0.3010 نیٹ آن ہے
-0.3010 نیٹ ختم ہو
-0.3010 نیٹ چلاؤ اور
-0.3010 نے اس کو
-0.3010 نے گھر کب
-0.3010 والا ہوں اپنا
-0.3010 واپس آ جاءیں
-0.3010 وجہ سے لیٹ
-0.3010 وعلیکم سلام </s>
-0.3010 وقت کہاں پر
-0.3010 وٹسآیپ پر آنلاءن
-0.3010 ویسے سامان کا
-0.3010 ویسے عزیر نے
-0.3010 ویسے نیٹ آن
-0.3010 ٹریفک بہت ہے
-0.3010 ٹریفک میں پھنسے
-0.3010 ٹھاک کوءی خاص
-0.3010 ٹھیک ٹھاک کوءی
-0.3010 پتہ ہے جو
-0.3010 پر آنلاءن ہو
-0.3010 پر کھڑا ہوں
-0.3010 پر ہو </s>
-0.3010 پر ہوں آتے
-0.3010 پرسوں رات تک
-0.3010 پندرہ منٹ لگ
-0.3010 پٹرول ڈلوا کر
-0.3010 پڑھ کر سوناؤ
-0.3010 پھر لاہور جانا
-0.3010 پھنسے ہوے ہیں
-0.3010 پہلے گجرانوالہ پھر
-0.3010 پہنچ جاؤں گا
-0.6021 پہنچ کر بات
-0.6021 پہنچ کر میسج
-0.3010 پہنچنے والا ہوں
-0.3010 پہنچے ہو آتے
-0.3010 چال ہے کیا
-0.3010 چاہیے بتا دو
-0.3010 چاہیے ہو گا
-0.3010 چلا رہا ہوں
-0.3010 چلاؤ اور کھانے
-0.3010 چیز چاہیے بتا
-0.3010 ڈرایو کر رہا
-0.3010 ڈلوا کر میسج
-0.3010 کا پتہ ہے
-0.3010 کا ہے میسج
-0.3010 کال کرتا </s>
-0.3010 کال کرو </s>
-0.3010 کام پر ہوں
-0.3010 کب اور کتنی
-0.3010 کب تک آنا
-0.3010 کتنی دیر تک
-0.3010 کدھر ہو کب
-0.3010 کدہر پہنچے ہو
-0.3010 کر آنا ہے
-0.3010 کر بات ہوتی
-0.3010 کر دوں گا
-0.3010 کر دینا </s>
-0.3010 کر رہا ہوں
-0.3010 کر رہے ہو
-0.3010 کر سوناؤ </s>
-0.3010 کر سکتا گاڑی
-0.6021 کر میسج کر
-0.6021 کر میسج کرنا
-0.3010 کرنا ویسے سامان
-0.3010 کس کا ہے
-0.3010 کل یا پرسوں
-0.3010 کو میسج کیا
-0.3010 کو کہاں کے
-0.3010 کوءی خاص نہیں
-0.3010 کوءی چیز چاہیے
-0.3010 کون سا سامان
-0.3010 کون کون سا
-0.3010 کچھ منگوانا ہے
-0.3010 کچھ چاہیے ہو
-0.3010 کھانے میں کیا
-0.3010 کھڑا ہوں پہنچ
-0.3010 کہاں پر ہو
-0.3010 کہاں کے لیے
-0.3010 کی وجہ سے
-0.3010 کیا بنا </s>
-0.3010 کیا تھا </s>
-0.3010 کیا حال چال
-0.3010 کیا خبر ہے
-0.3010 کیا کر رہے
-0.3010 کیوں ابھی کدہر
-0.3010 کے لیے نکلنا
-0.3010 گا تو میسج
-0.3010 گاڑی چلا رہا
-0.3010 گاڑی ڈرایو کر
-0.3010 گجرانوالہ پھر لاہور
-0.3010 گھر کب اور
-0.3010 گیا ہے ویسے
-0.3010 گے ابھی بات
-0.3010 ہم ٹریفک میں
-0.3010 ہو آتے ہوے
-0.3010 ہو اس وقت
-0.3010 ہو جاؤ </s>
-0.3010 ہو کب تک
-0.3010 ہو گا تو
-0.3010 ہو گیا ہے
-0.3010 ہوتی ہے </s>
-0.3010 ہونے کی وجہ
-0.3010 ہوں آتے ہوے
-0.3010 ہوں اپنا نیٹ
-0.3010 ہوں بتا دو
-0.3010 ہوں رات تک
-0.3010 ہوں صبح تک
-0.3010 ہوں پہنچ کر
-0.3010 ہوں گاڑی چلا
-0.3010 ہوے سامان لے
-0.3010 ہوے لے آؤں
-0.3010 ہوے ہیں اور
-0.3010 ہیں اور کچھ
-0.3010 ہیں بتا دو
-0.3010 ہے اشارح پر
-0.3010 ہے اور کل
-0.3010 ہے جو لانا
-0.3010 ہے میسج پڑھ
-0.3010 ہے وٹسآیپ پر
-0.3010 ہے ویسے عزیر
-0.3010 ہے پٹرول ڈلوا
-0.3010 ہے کیا خبر
-0.3010 ہے یا نہیں
-0.3010 یا شام کو
-0.3010 یا نہیں </s>
-0.3010 یا پرسوں رات

\end\
